<?xml version="1.0"?>
<opencv_storage>
  <cascade>
    <stageType>BOOST</stageType>
    <featureType>LBP</featureType>
    <height>24</height>
    <width>48</width>
    <stageParams>
      <boostType>GAB</boostType>
      <minHitRate>9.9900001287460327e-001</minHitRate>
      <maxFalseAlarm>1.0000000149011612e-001</maxFalseAlarm>
      <weightTrimRate>9.4999999999999996e-001</weightTrimRate>
      <maxDepth>1</maxDepth>
      <maxWeakCount>100</maxWeakCount>
    </stageParams>
    <featureParams>
      <maxCatCount>256</maxCatCount>
      <featSize>1</featSize>
    </featureParams>
    <stageNum>30</stageNum>
    <stages>
      <!-- stage 0 -->
      <_>
        <maxWeakCount>1</maxWeakCount>
        <stageThreshold>1.</stageThreshold>
        <weakClassifiers>
          <_>
            <internalNodes>
              0 -1 6 16801927 419430401 327681 -1257963519 1077936256
              8388608 512 -947912182
            </internalNodes>
            <leafValues>
              -1. 1.
            </leafValues>
          </_>
        </weakClassifiers>
      </_>
      <!-- stage 1 -->
      <_>
        <maxWeakCount>1</maxWeakCount>
        <stageThreshold>1.</stageThreshold>
        <weakClassifiers>
          <_>
            <internalNodes>
              0 -1 22 -2146434806 -720371199 16385 1157636097 -2139095040
              -1475870720 142606336 -1718804216
            </internalNodes>
            <leafValues>
              -1. 1.
            </leafValues>
          </_>
        </weakClassifiers>
      </_>
      <!-- stage 2 -->
      <_>
        <maxWeakCount>1</maxWeakCount>
        <stageThreshold>1.</stageThreshold>
        <weakClassifiers>
          <_>
            <internalNodes>
              0 -1 14 268534035 -1862270967 1 -2044714752 4243587
              1220542464 128 -1056964600
            </internalNodes>
            <leafValues>
              -1. 1.
            </leafValues>
          </_>
        </weakClassifiers>
      </_>
      <!-- stage 3 -->
      <_>
        <maxWeakCount>1</maxWeakCount>
        <stageThreshold>1.</stageThreshold>
        <weakClassifiers>
          <_>
            <internalNodes>
              0 -1 13 131 427884545 4 -1996488448 34984 -1467482111 32777
              -1434451832
            </internalNodes>
            <leafValues>
              -1. 1.
            </leafValues>
          </_>
        </weakClassifiers>
      </_>
      <!-- stage 4 -->
      <_>
        <maxWeakCount>1</maxWeakCount>
        <stageThreshold>1.</stageThreshold>
        <weakClassifiers>
          <_>
            <internalNodes>
              0 -1 25 1342226557 -1879048192 536871169 285278209
              -2139094902 -2012610559 130 -1988098024
            </internalNodes>
            <leafValues>
              -1. 1.
            </leafValues>
          </_>
        </weakClassifiers>
      </_>
      <!-- stage 5 -->
      <_>
        <maxWeakCount>1</maxWeakCount>
        <stageThreshold>1.</stageThreshold>
        <weakClassifiers>
          <_>
            <internalNodes>
              0 -1 18 -788213488 352354312 65 1895825408 -2147448831
              33554432 142606481 -1694466037
            </internalNodes>
            <leafValues>
              -1. 1.
            </leafValues>
          </_>
        </weakClassifiers>
      </_>
      <!-- stage 6 -->
      <_>
        <maxWeakCount>1</maxWeakCount>
        <stageThreshold>1.</stageThreshold>
        <weakClassifiers>
          <_>
            <internalNodes>
              0 -1 26 -2147466789 293683712 1082130497 1342242816 8423560
              -2096627568 139 -2147418038
            </internalNodes>
            <leafValues>
              -1. 1.
            </leafValues>
          </_>
        </weakClassifiers>
      </_>
      <!-- stage 7 -->
      <_>
        <maxWeakCount>1</maxWeakCount>
        <stageThreshold>1.</stageThreshold>
        <weakClassifiers>
          <_>
            <internalNodes>
              0 -1 17 268454045 -787480576 262209 67108932 32802
              -1207926656 268470315 2228354
            </internalNodes>
            <leafValues>
              -1. 1.
            </leafValues>
          </_>
        </weakClassifiers>
      </_>
      <!-- stage 8 -->
      <_>
        <maxWeakCount>1</maxWeakCount>
        <stageThreshold>1.</stageThreshold>
        <weakClassifiers>
          <_>
            <internalNodes>
              0 -1 24 1663041834 268632072 16657 -2147450876 268501504
              1207959552 5799937 -1375075566
            </internalNodes>
            <leafValues>
              -1. 1.
            </leafValues>
          </_>
        </weakClassifiers>
      </_>
      <!-- stage 9 -->
      <_>
        <maxWeakCount>1</maxWeakCount>
        <stageThreshold>1.</stageThreshold>
        <weakClassifiers>
          <_>
            <internalNodes>
              0 -1 20 1343262737 268435585 4101 -603914239 169 -2147483648
              41943176 -2013036541
            </internalNodes>
            <leafValues>
              -1. 1.
            </leafValues>
          </_>
        </weakClassifiers>
      </_>
      <!-- stage 10 -->
      <_>
        <maxWeakCount>1</maxWeakCount>
        <stageThreshold>1.</stageThreshold>
        <weakClassifiers>
          <_>
            <internalNodes>
              0 -1 9 1074495519 -2147450880 -2097151992 268435461 32
              274432 -392167421 44112530
            </internalNodes>
            <leafValues>
              -1. 1.
            </leafValues>
          </_>
        </weakClassifiers>
      </_>
      <!-- stage 11 -->
      <_>
        <maxWeakCount>1</maxWeakCount>
        <stageThreshold>1.</stageThreshold>
        <weakClassifiers>
          <_>
            <internalNodes>
              0 -1 15 -1979613119 8388864 64 -2147450879 1074266624 32
              65548 -230602112
            </internalNodes>
            <leafValues>
              -1. 1.
            </leafValues>
          </_>
        </weakClassifiers>
      </_>
      <!-- stage 12 -->
      <_>
        <maxWeakCount>1</maxWeakCount>
        <stageThreshold>1.</stageThreshold>
        <weakClassifiers>
          <_>
            <internalNodes>
              0 -1 19 -855076541 67141888 512 524288 3 268435456 268435456
              -637532153
            </internalNodes>
            <leafValues>
              -1. 1.
            </leafValues>
          </_>
        </weakClassifiers>
      </_>
      <!-- stage 13 -->
      <_>
        <maxWeakCount>1</maxWeakCount>
        <stageThreshold>1.</stageThreshold>
        <weakClassifiers>
          <_>
            <internalNodes>
              0 -1 3 -1073577984 536870913 1 -2130706175 80 -2147483648
              -2147483647 318898177
            </internalNodes>
            <leafValues>
              -1. 1.
            </leafValues>
          </_>
        </weakClassifiers>
      </_>
      <!-- stage 14 -->
      <_>
        <maxWeakCount>1</maxWeakCount>
        <stageThreshold>1.</stageThreshold>
        <weakClassifiers>
          <_>
            <internalNodes>
              0 -1 16 285212800 16842752 16777217 285212672 -2147483590
              -1593835520 1082130442 -1979711478
            </internalNodes>
            <leafValues>
              -1. 1.
            </leafValues>
          </_>
        </weakClassifiers>
      </_>
      <!-- stage 15 -->
      <_>
        <maxWeakCount>1</maxWeakCount>
        <stageThreshold>1.</stageThreshold>
        <weakClassifiers>
          <_>
            <internalNodes>
              0 -1 10 16786368 1140986368 1610612736 0 -2147450880 2048
              1078034464 4555137
            </internalNodes>
            <leafValues>
              -1. 1.
            </leafValues>
          </_>
        </weakClassifiers>
      </_>
      <!-- stage 16 -->
      <_>
        <maxWeakCount>1</maxWeakCount>
        <stageThreshold>1.</stageThreshold>
        <weakClassifiers>
          <_>
            <internalNodes>
              0 -1 3 276906649 1342177344 272 403701776 -2147479552 0 2306
              -2013198334
            </internalNodes>
            <leafValues>
              -1. 1.
            </leafValues>
          </_>
        </weakClassifiers>
      </_>
      <!-- stage 17 -->
      <_>
        <maxWeakCount>1</maxWeakCount>
        <stageThreshold>1.</stageThreshold>
        <weakClassifiers>
          <_>
            <internalNodes>
              0 -1 4 2 1342308352 0 16777216 -2147417856 402685953 12288
              -484179839
            </internalNodes>
            <leafValues>
              -1. 1.
            </leafValues>
          </_>
        </weakClassifiers>
      </_>
      <!-- stage 18 -->
      <_>
        <maxWeakCount>1</maxWeakCount>
        <stageThreshold>1.</stageThreshold>
        <weakClassifiers>
          <_>
            <internalNodes>
              0 -1 5 -2147416063 16777216 1 1073741825 -1476394879 32768
              16384 -1879007232
            </internalNodes>
            <leafValues>
              -1. 1.
            </leafValues>
          </_>
        </weakClassifiers>
      </_>
      <!-- stage 19 -->
      <_>
        <maxWeakCount>1</maxWeakCount>
        <stageThreshold>1.</stageThreshold>
        <weakClassifiers>
          <_>
            <internalNodes>
              0 -1 12 -1862266876 36880 8388648 143654912 262336
              -2138963968 21506048 25692488
            </internalNodes>
            <leafValues>
              -1. 1.
            </leafValues>
          </_>
        </weakClassifiers>
      </_>
      <!-- stage 20 -->
      <_>
        <maxWeakCount>1</maxWeakCount>
        <stageThreshold>1.</stageThreshold>
        <weakClassifiers>
          <_>
            <internalNodes>
              0 -1 7 -1069528925 67134049 1 65538 268439568 0 256
              1216528896
            </internalNodes>
            <leafValues>
              -1. 1.
            </leafValues>
          </_>
        </weakClassifiers>
      </_>
      <!-- stage 21 -->
      <_>
        <maxWeakCount>1</maxWeakCount>
        <stageThreshold>1.</stageThreshold>
        <weakClassifiers>
          <_>
            <internalNodes>
              0 -1 1 269484033 268435712 5 134217729 -2147450744
              -2013265792 134217738 -2147287040
            </internalNodes>
            <leafValues>
              -1. 1.
            </leafValues>
          </_>
        </weakClassifiers>
      </_>
      <!-- stage 22 -->
      <_>
        <maxWeakCount>1</maxWeakCount>
        <stageThreshold>1.</stageThreshold>
        <weakClassifiers>
          <_>
            <internalNodes>
              0 -1 8 -1056964585 -1861222400 1 -855113600 33554568
              -1610612728 2088 402653192
            </internalNodes>
            <leafValues>
              -1. 1.
            </leafValues>
          </_>
        </weakClassifiers>
      </_>
      <!-- stage 23 -->
      <_>
        <maxWeakCount>1</maxWeakCount>
        <stageThreshold>1.</stageThreshold>
        <weakClassifiers>
          <_>
            <internalNodes>
              0 -1 2 1610679306 0 0 0 0 2 32768 42140162
            </internalNodes>
            <leafValues>
              -1. 1.
            </leafValues>
          </_>
        </weakClassifiers>
      </_>
      <!-- stage 24 -->
      <_>
        <maxWeakCount>1</maxWeakCount>
        <stageThreshold>1.</stageThreshold>
        <weakClassifiers>
          <_>
            <internalNodes>
              0 -1 11 1056769 -1946157056 32 12582912 9760 0 -2013188096
              -1610612736
            </internalNodes>
            <leafValues>
              -1. 1.
            </leafValues>
          </_>
        </weakClassifiers>
      </_>
      <!-- stage 25 -->
      <_>
        <maxWeakCount>1</maxWeakCount>
        <stageThreshold>1.</stageThreshold>
        <weakClassifiers>
          <_>
            <internalNodes>
              0 -1 4 1090654465 -2063597568 -1610612728 -1945108348
              1065040 1646280832 -2147186688 8454144
            </internalNodes>
            <leafValues>
              -1. 1.
            </leafValues>
          </_>
        </weakClassifiers>
      </_>
      <!-- stage 26 -->
      <_>
        <maxWeakCount>1</maxWeakCount>
        <stageThreshold>1.</stageThreshold>
        <weakClassifiers>
          <_>
            <internalNodes>
              0 -1 21 -2146957879 -1877934079 285212672 1073741824
              -1876323968 -1868431360 528386 590080
            </internalNodes>
            <leafValues>
              -1. 1.
            </leafValues>
          </_>
        </weakClassifiers>
      </_>
      <!-- stage 27 -->
      <_>
        <maxWeakCount>1</maxWeakCount>
        <stageThreshold>1.</stageThreshold>
        <weakClassifiers>
          <_>
            <internalNodes>
              0 -1 1 114960 -2143289328 0 -1056899072 112 536870912
              -2147475328 1073741857
            </internalNodes>
            <leafValues>
              -1. 1.
            </leafValues>
          </_>
        </weakClassifiers>
      </_>
      <!-- stage 28 -->
      <_>
        <maxWeakCount>1</maxWeakCount>
        <stageThreshold>1.</stageThreshold>
        <weakClassifiers>
          <_>
            <internalNodes>
              0 -1 0 -2147287038 0 0 0 0 0 131072 -2147303296
            </internalNodes>
            <leafValues>
              -1. 1.
            </leafValues>
          </_>
        </weakClassifiers>
      </_>
      <!-- stage 29 -->
      <_>
        <maxWeakCount>1</maxWeakCount>
        <stageThreshold>1.</stageThreshold>
        <weakClassifiers>
          <_>
            <internalNodes>
              0 -1 23 1 0 67593 -1879048192 -2147483512 -1039925112 8
              -1862205440
            </internalNodes>
            <leafValues>
              -1. 1.
            </leafValues>
          </_>
        </weakClassifiers>
      </_>
    </stages>
    <features>
      <_>
        <rect>
          0 0 1 5
        </rect>
      </_>
      <_>
        <rect>
          0 0 3 1
        </rect>
      </_>
      <_>
        <rect>
          0 0 3 4
        </rect>
      </_>
      <_>
        <rect>
          0 0 4 2
        </rect>
      </_>
      <_>
        <rect>
          0 0 5 2
        </rect>
      </_>
      <_>
        <rect>
          0 0 6 2
        </rect>
      </_>
      <_>
        <rect>
          0 0 6 3
        </rect>
      </_>
      <_>
        <rect>
          0 0 8 7
        </rect>
      </_>
      <_>
        <rect>
          0 0 10 2
        </rect>
      </_>
      <_>
        <rect>
          0 0 10 7
        </rect>
      </_>
      <_>
        <rect>
          0 0 11 7
        </rect>
      </_>
      <_>
        <rect>
          0 0 12 3
        </rect>
      </_>
      <_>
        <rect>
          0 0 12 7
        </rect>
      </_>
      <_>
        <rect>
          0 0 13 3
        </rect>
      </_>
      <_>
        <rect>
          0 0 13 7
        </rect>
      </_>
      <_>
        <rect>
          0 0 14 7
        </rect>
      </_>
      <_>
        <rect>
          0 0 15 1
        </rect>
      </_>
      <_>
        <rect>
          0 0 15 2
        </rect>
      </_>
      <_>
        <rect>
          0 0 16 4
        </rect>
      </_>
      <_>
        <rect>
          0 1 5 4
        </rect>
      </_>
      <_>
        <rect>
          0 1 6 1
        </rect>
      </_>
      <_>
        <rect>
          0 1 7 2
        </rect>
      </_>
      <_>
        <rect>
          0 1 8 4
        </rect>
      </_>
      <_>
        <rect>
          0 1 9 1
        </rect>
      </_>
      <_>
        <rect>
          0 1 12 7
        </rect>
      </_>
      <_>
        <rect>
          0 1 14 2
        </rect>
      </_>
      <_>
        <rect>
          0 6 13 4
        </rect>
      </_>
    </features>
  </cascade>
</opencv_storage>