<?xml version="1.0"?>
<opencv_storage>
<cascade>
  <stageType>BOOST</stageType>
  <featureType>LBP</featureType>
  <height>48</height>
  <width>24</width>
  <stageParams>
    <boostType>GAB</boostType>
    <minHitRate>9.9900001287460327e-001</minHitRate>
    <maxFalseAlarm>1.0000000149011612e-001</maxFalseAlarm>
    <weightTrimRate>9.4999999999999996e-001</weightTrimRate>
    <maxDepth>1</maxDepth>
    <maxWeakCount>100</maxWeakCount></stageParams>
  <featureParams>
    <maxCatCount>256</maxCatCount>
    <featSize>1</featSize></featureParams>
  <stageNum>11</stageNum>
  <stages>
    <!-- stage 0 -->
    <_>
      <maxWeakCount>1</maxWeakCount>
      <stageThreshold>1.</stageThreshold>
      <weakClassifiers>
        <_>
          <internalNodes>
            0 -1 4 -1325399585 1342508817 1476984835 -586997759 130
            1082130432 -1442805751 -611745729</internalNodes>
          <leafValues>
            -1. 1.</leafValues></_></weakClassifiers></_>
    <!-- stage 1 -->
    <_>
      <maxWeakCount>1</maxWeakCount>
      <stageThreshold>1.</stageThreshold>
      <weakClassifiers>
        <_>
          <internalNodes>
            0 -1 1 -124248705 17862656 152 19038208 168824982
            -1206910928 -1442314017 -1942452007</internalNodes>
          <leafValues>
            -1. 1.</leafValues></_></weakClassifiers></_>
    <!-- stage 2 -->
    <_>
      <maxWeakCount>1</maxWeakCount>
      <stageThreshold>9.9337750673294067e-001</stageThreshold>
      <weakClassifiers>
        <_>
          <internalNodes>
            0 -1 2 -788472869 -141950827 -935277932 -603906037 134744776
            1343422518 -1165390195 -24831488</internalNodes>
          <leafValues>
            -1. 9.9337750673294067e-001</leafValues></_></weakClassifiers></_>
    <!-- stage 3 -->
    <_>
      <maxWeakCount>1</maxWeakCount>
      <stageThreshold>9.9337750673294067e-001</stageThreshold>
      <weakClassifiers>
        <_>
          <internalNodes>
            0 -1 10 1112000655 114947 98306 -1610285053 1359028739
            268435971 -1845477373 -740834641</internalNodes>
          <leafValues>
            -1. 9.9337750673294067e-001</leafValues></_></weakClassifiers></_>
    <!-- stage 4 -->
    <_>
      <maxWeakCount>2</maxWeakCount>
      <stageThreshold>-5.7727671228349209e-003</stageThreshold>
      <weakClassifiers>
        <_>
          <internalNodes>
            0 -1 3 1364955601 1368883667 -889056872 -1690287742
            1091043467 -805306235 50364555 -674713148</internalNodes>
          <leafValues>
            -9.9926143884658813e-001 1.</leafValues></_>
        <_>
          <internalNodes>
            0 -1 9 -246164523 -1317994123 -2113929216 -1660124905
            1363181955 -2146402288 -2113830912 -125523543</internalNodes>
          <leafValues>
            -9.9926173686981201e-001 9.9348866939544678e-001</leafValues></_></weakClassifiers></_>
    <!-- stage 5 -->
    <_>
      <maxWeakCount>1</maxWeakCount>
      <stageThreshold>1.</stageThreshold>
      <weakClassifiers>
        <_>
          <internalNodes>
            0 -1 13 -247995461 -1877893084 16781317 -216801248
            -2080276341 129 -1073741822 -791633784</internalNodes>
          <leafValues>
            -1. 1.</leafValues></_></weakClassifiers></_>
    <!-- stage 6 -->
    <_>
      <maxWeakCount>2</maxWeakCount>
      <stageThreshold>-5.9030535630881786e-003</stageThreshold>
      <weakClassifiers>
        <_>
          <internalNodes>
            0 -1 6 -1846716985 -1862205177 17305619 -787660769 573443
            -1442512381 -2138306941 -322968949</internalNodes>
          <leafValues>
            -9.9926120042800903e-001 9.9335545301437378e-001</leafValues></_>
        <_>
          <internalNodes>
            0 -1 12 -670182761 -514469879 524805 -1072447089 -2113552233
            -2113847224 -263349717 -909118549</internalNodes>
          <leafValues>
            -9.9925851821899414e-001 9.9353063106536865e-001</leafValues></_></weakClassifiers></_>
    <!-- stage 7 -->
    <_>
      <maxWeakCount>1</maxWeakCount>
      <stageThreshold>9.8679870367050171e-001</stageThreshold>
      <weakClassifiers>
        <_>
          <internalNodes>
            0 -1 7 -1009319745 -188612479 286441497 -2046590926
            -528496416 -401579384 -2134540272 -523278167</internalNodes>
          <leafValues>
            -1. 9.8679870367050171e-001</leafValues></_></weakClassifiers></_>
    <!-- stage 8 -->
    <_>
      <maxWeakCount>2</maxWeakCount>
      <stageThreshold>-1.2158194556832314e-002</stageThreshold>
      <weakClassifiers>
        <_>
          <internalNodes>
            0 -1 5 1359150887 -1312579135 49167 856129857 58787883
            -654078936 -1056677205 -205455121</internalNodes>
          <leafValues>
            -9.9926120042800903e-001 9.9335545301437378e-001</leafValues></_>
        <_>
          <internalNodes>
            0 -1 8 25249879 -1727952699 134449197 -754221047 -402609653
            -1558138752 276832939 -1147436799</internalNodes>
          <leafValues>
            -9.9925827980041504e-001 9.8710298538208008e-001</leafValues></_></weakClassifiers></_>
    <!-- stage 9 -->
    <_>
      <maxWeakCount>1</maxWeakCount>
      <stageThreshold>9.9337750673294067e-001</stageThreshold>
      <weakClassifiers>
        <_>
          <internalNodes>
            0 -1 11 -788229940 -738197349 34275585 93454789 545882637
            -762707709 1885397645 2093519249</internalNodes>
          <leafValues>
            -1. 9.9337750673294067e-001</leafValues></_></weakClassifiers></_>
    <!-- stage 10 -->
    <_>
      <maxWeakCount>1</maxWeakCount>
      <stageThreshold>1.</stageThreshold>
      <weakClassifiers>
        <_>
          <internalNodes>
            0 -1 0 1090519680 134217752 268468225 -1996488447 -939482496
            -1878523776 302055424 -142589664</internalNodes>
          <leafValues>
            -1. 1.</leafValues></_></weakClassifiers></_></stages>
  <features>
    <_>
      <rect>
        0 4 7 12</rect></_>
    <_>
      <rect>
        0 13 6 7</rect></_>
    <_>
      <rect>
        1 18 5 5</rect></_>
    <_>
      <rect>
        2 16 7 10</rect></_>
    <_>
      <rect>
        6 18 5 6</rect></_>
    <_>
      <rect>
        8 1 3 9</rect></_>
    <_>
      <rect>
        8 1 4 8</rect></_>
    <_>
      <rect>
        8 2 4 9</rect></_>
    <_>
      <rect>
        8 9 3 3</rect></_>
    <_>
      <rect>
        8 13 5 11</rect></_>
    <_>
      <rect>
        9 1 2 11</rect></_>
    <_>
      <rect>
        9 4 3 6</rect></_>
    <_>
      <rect>
        10 6 2 6</rect></_>
    <_>
      <rect>
        13 10 2 5</rect></_></features></cascade>
</opencv_storage>
