<?xml version="1.0"?>
<opencv_storage>
<cascade>
  <stageType>BOOST</stageType>
  <featureType>LBP</featureType>
  <height>24</height>
  <width>48</width>
  <stageParams>
    <boostType>GAB</boostType>
    <minHitRate>9.9900001287460327e-001</minHitRate>
    <maxFalseAlarm>1.0000000149011612e-001</maxFalseAlarm>
    <weightTrimRate>9.4999999999999996e-001</weightTrimRate>
    <maxDepth>1</maxDepth>
    <maxWeakCount>100</maxWeakCount></stageParams>
  <featureParams>
    <maxCatCount>256</maxCatCount>
    <featSize>1</featSize></featureParams>
  <stageNum>10</stageNum>
  <stages>
    <!-- stage 0 -->
    <_>
      <maxWeakCount>1</maxWeakCount>
      <stageThreshold>1.</stageThreshold>
      <weakClassifiers>
        <_>
          <internalNodes>
            0 -1 5 454242655 -787144685 16799809 -671088637 1342178185
            -1828663296 -2147450880 -108818302</internalNodes>
          <leafValues>
            -1. 1.</leafValues></_></weakClassifiers></_>
    <!-- stage 1 -->
    <_>
      <maxWeakCount>1</maxWeakCount>
      <stageThreshold>9.9307960271835327e-001</stageThreshold>
      <weakClassifiers>
        <_>
          <internalNodes>
            0 -1 2 -1061044001 285508165 8 22085632 1351221448
            -2004342776 -2004320117 -1182168566</internalNodes>
          <leafValues>
            -1. 9.9307960271835327e-001</leafValues></_></weakClassifiers></_>
    <!-- stage 2 -->
    <_>
      <maxWeakCount>2</maxWeakCount>
      <stageThreshold>-1.2740869075059891e-002</stageThreshold>
      <weakClassifiers>
        <_>
          <internalNodes>
            0 -1 4 469766617 1560285457 889197917 -1795096560 134742185
            -1182760832 134285449 -1416984438</internalNodes>
          <leafValues>
            -9.9890649318695068e-001 9.8615914583206177e-001</leafValues></_>
        <_>
          <internalNodes>
            0 -1 6 -213544737 -812973624 -602602239 -645267456
            -2130607973 -2146828144 -1467971575 -1145337462</internalNodes>
          <leafValues>
            -9.9890005588531494e-001 9.8662394285202026e-001</leafValues></_></weakClassifiers></_>
    <!-- stage 3 -->
    <_>
      <maxWeakCount>2</maxWeakCount>
      <stageThreshold>-5.6857191957533360e-003</stageThreshold>
      <weakClassifiers>
        <_>
          <internalNodes>
            0 -1 13 -784469065 -803897279 1091584273 -45101033
            -2113306181 -1610022912 8486955 -117209077</internalNodes>
          <leafValues>
            -9.9890708923339844e-001 9.9305558204650879e-001</leafValues></_>
        <_>
          <internalNodes>
            0 -1 1 -1878932011 286331160 268473311 -111296033
            -1072921957 -1191116792 34986 -880244600</internalNodes>
          <leafValues>
            -9.9781018495559692e-001 9.9322140216827393e-001</leafValues></_></weakClassifiers></_>
    <!-- stage 4 -->
    <_>
      <maxWeakCount>1</maxWeakCount>
      <stageThreshold>9.8620688915252686e-001</stageThreshold>
      <weakClassifiers>
        <_>
          <internalNodes>
            0 -1 3 268521501 -787410927 1342456283 1392591107 268447883
            -1828519808 42109579 -477380474</internalNodes>
          <leafValues>
            -1. 9.8620688915252686e-001</leafValues></_></weakClassifiers></_>
    <!-- stage 5 -->
    <_>
      <maxWeakCount>2</maxWeakCount>
      <stageThreshold>-5.7090176269412041e-003</stageThreshold>
      <weakClassifiers>
        <_>
          <internalNodes>
            0 -1 9 -744891907 -719847407 16810251 -587202544 134783231
            -33554238 -2130670933 -813170550</internalNodes>
          <leafValues>
            -9.9890768527984619e-001 1.</leafValues></_>
        <_>
          <internalNodes>
            0 -1 11 1082245365 -251658080 16859413 -181944095 289521879
            -620036095 1074004545 -540589917</internalNodes>
          <leafValues>
            -9.9890828132629395e-001 9.9319869279861450e-001</leafValues></_></weakClassifiers></_>
    <!-- stage 6 -->
    <_>
      <maxWeakCount>2</maxWeakCount>
      <stageThreshold>-4.7558005899190903e-003</stageThreshold>
      <weakClassifiers>
        <_>
          <internalNodes>
            0 -1 8 -738073163 -721317567 16777236 -653143935 123561
            -1501560311 -1002339921 -544483191</internalNodes>
          <leafValues>
            -9.9890708923339844e-001 9.9305558204650879e-001</leafValues></_>
        <_>
          <internalNodes>
            0 -1 7 1200275743 -2147368768 257 -452067060 17928591
            -930184184 -1693876086 -108158529</internalNodes>
          <leafValues>
            -9.9781137704849243e-001 1.</leafValues></_></weakClassifiers></_>
    <!-- stage 7 -->
    <_>
      <maxWeakCount>1</maxWeakCount>
      <stageThreshold>9.9307960271835327e-001</stageThreshold>
      <weakClassifiers>
        <_>
          <internalNodes>
            0 -1 12 -951101519 -779496696 16385 -70155943 -2147475304
            -1207762944 1635815566 -498862078</internalNodes>
          <leafValues>
            -1. 9.9307960271835327e-001</leafValues></_></weakClassifiers></_>
    <!-- stage 8 -->
    <_>
      <maxWeakCount>1</maxWeakCount>
      <stageThreshold>9.9307960271835327e-001</stageThreshold>
      <weakClassifiers>
        <_>
          <internalNodes>
            0 -1 10 1342758939 285970521 192737 -1861025792 -2147245943
            -1999929343 -2113765358 -40923006</internalNodes>
          <leafValues>
            -1. 9.9307960271835327e-001</leafValues></_></weakClassifiers></_>
    <!-- stage 9 -->
    <_>
      <maxWeakCount>1</maxWeakCount>
      <stageThreshold>1.</stageThreshold>
      <weakClassifiers>
        <_>
          <internalNodes>
            0 -1 0 1342246924 65537 131072 -2147418112 1073741824 131072
            16 553656384</internalNodes>
          <leafValues>
            -1. 1.</leafValues></_></weakClassifiers></_></stages>
  <features>
    <_>
      <rect>
        0 1 2 5</rect></_>
    <_>
      <rect>
        0 11 16 4</rect></_>
    <_>
      <rect>
        4 0 3 6</rect></_>
    <_>
      <rect>
        5 5 14 4</rect></_>
    <_>
      <rect>
        5 15 3 1</rect></_>
    <_>
      <rect>
        11 13 3 3</rect></_>
    <_>
      <rect>
        13 3 6 4</rect></_>
    <_>
      <rect>
        13 3 6 6</rect></_>
    <_>
      <rect>
        26 0 2 2</rect></_>
    <_>
      <rect>
        29 15 3 2</rect></_>
    <_>
      <rect>
        31 13 2 3</rect></_>
    <_>
      <rect>
        33 0 5 8</rect></_>
    <_>
      <rect>
        34 0 4 8</rect></_>
    <_>
      <rect>
        39 2 2 5</rect></_></features></cascade>
</opencv_storage>
